<?xml version="1.0"?>
<opencv_storage>
<cascade>
  <stageType>BOOST</stageType>
  <featureType>LBP</featureType>
  <height>25</height>
  <width>50</width>
  <stageParams>
    <boostType>GAB</boostType>
    <minHitRate>9.9500000476837158e-01</minHitRate>
    <maxFalseAlarm>5.0000000000000000e-01</maxFalseAlarm>
    <weightTrimRate>9.4999999999999996e-01</weightTrimRate>
    <maxDepth>1</maxDepth>
    <maxWeakCount>100</maxWeakCount></stageParams>
  <featureParams>
    <maxCatCount>256</maxCatCount>
    <featSize>1</featSize></featureParams>
  <stageNum>20</stageNum>
  <stages>
    <!-- stage 0 -->
    <_>
      <maxWeakCount>11</maxWeakCount>
      <stageThreshold>-1.6020393371582031e+00</stageThreshold>
      <weakClassifiers>
        <_>
          <internalNodes>
            0 -1 217 -1 -2165284 1037917149 -34819 706411711 1056892159
            384654333 -1</internalNodes>
          <leafValues>
            -6.4483845233917236e-01 4.6856465935707092e-01</leafValues></_>
        <_>
          <internalNodes>
            0 -1 19 -271361 -614826065 2067438586 456145562 -806479650
            -358179073 -805314561 -8449</internalNodes>
          <leafValues>
            -3.6017319560050964e-01 6.1497282981872559e-01</leafValues></_>
        <_>
          <internalNodes>
            0 -1 158 -1615072261 -1623386183 -109085231 -4197641
            -1293953286 -1364197717 1425002712 -541066753</internalNodes>
          <leafValues>
            -2.8969663381576538e-01 6.0434257984161377e-01</leafValues></_>
        <_>
          <internalNodes>
            0 -1 75 536354300 -246280 -604145923 -254792 -1599176195
            -4653832 -1114047234 -1623696916</internalNodes>
          <leafValues>
            -4.7855630517005920e-01 3.6153560876846313e-01</leafValues></_>
        <_>
          <internalNodes>
            0 -1 88 -782241030 2113367594 612454576 1430504288
            1929572520 1077019526 1385660568 1396687528</internalNodes>
          <leafValues>
            -4.7358042001724243e-01 3.3514580130577087e-01</leafValues></_>
        <_>
          <internalNodes>
            0 -1 42 -913317446 -275877910 1855186867 2142462113
            -883952901 -835795482 1104663957 -942680591</internalNodes>
          <leafValues>
            -3.5109856724739075e-01 4.5806053280830383e-01</leafValues></_>
        <_>
          <internalNodes>
            0 -1 141 1030756592 1602123583 -270164258 1608204285
            -1081280516 -1091772429 -1074210355 -1078453000</internalNodes>
          <leafValues>
            -5.2024012804031372e-01 2.9597744345664978e-01</leafValues></_>
        <_>
          <internalNodes>
            0 -1 58 -554476833 -2400646 532303103 2014477948 -302903590
            -545842433 -12657666 -77865285</internalNodes>
          <leafValues>
            -2.6359972357749939e-01 5.7361108064651489e-01</leafValues></_>
        <_>
          <internalNodes>
            0 -1 208 -2102009 -278408585 -1998650758 583793390
            -1101793536 122645828 1722541765 1384051663</internalNodes>
          <leafValues>
            -4.3256697058677673e-01 3.6439016461372375e-01</leafValues></_>
        <_>
          <internalNodes>
            0 -1 182 220900208 759016860 -1909577 535909853 -1074076226
            -1360088201 167518189 258164124</internalNodes>
          <leafValues>
            -5.9860640764236450e-01 2.3576228320598602e-01</leafValues></_>
        <_>
          <internalNodes>
            0 -1 172 -293890026 1595392000 -59020803 -1390750975
            1879507436 -29445688 273504766 -267324137</internalNodes>
          <leafValues>
            -4.1954305768013000e-01 3.4588167071342468e-01</leafValues></_></weakClassifiers></_>
    <!-- stage 1 -->
    <_>
      <maxWeakCount>9</maxWeakCount>
      <stageThreshold>-1.4595543146133423e+00</stageThreshold>
      <weakClassifiers>
        <_>
          <internalNodes>
            0 -1 197 -3085 -1078985814 -2100751 -545 -1073809669
            -1896105537 1441788145 -536870917</internalNodes>
          <leafValues>
            -6.5610587596893311e-01 3.5309147834777832e-01</leafValues></_>
        <_>
          <internalNodes>
            0 -1 73 -143108612 -2140803 -4194305 -32811 -1078280199
            -4531269 -1146423297 -1145414150</internalNodes>
          <leafValues>
            -4.8610422015190125e-01 4.8235073685646057e-01</leafValues></_>
        <_>
          <internalNodes>
            0 -1 150 521199092 -839432 -269885443 -12757508 -1342836740
            -1074043399 456575485 -1078257432</internalNodes>
          <leafValues>
            -4.4727963209152222e-01 4.7756966948509216e-01</leafValues></_>
        <_>
          <internalNodes>
            0 -1 6 -806687237 -135595084 -335544457 -819983 -961871889
            -1023475734 -842596369 -973089285</internalNodes>
          <leafValues>
            -3.1452816724777222e-01 6.2263906002044678e-01</leafValues></_>
        <_>
          <internalNodes>
            0 -1 84 405806584 -4628488 2099770751 -46083 -1104822273
            -156427 -1074135585 -1079370568</internalNodes>
          <leafValues>
            -4.1302859783172607e-01 4.3293428421020508e-01</leafValues></_>
        <_>
          <internalNodes>
            0 -1 85 -18681142 -586949066 94171488 1996529826 -763130386
            136477098 -1068330310 1529609995</internalNodes>
          <leafValues>
            -4.2427420616149902e-01 3.9813229441642761e-01</leafValues></_>
        <_>
          <internalNodes>
            0 -1 140 -62927732 -573888448 338463886 2030677787
            -855659026 -1510250826 231406734 1331424923</internalNodes>
          <leafValues>
            -3.7665560841560364e-01 4.3617179989814758e-01</leafValues></_>
        <_>
          <internalNodes>
            0 -1 142 471358972 -1626334920 1031716789 1062219248
            -1093091331 -272881029 -1082074690 -1156966376</internalNodes>
          <leafValues>
            -4.6194913983345032e-01 3.7419721484184265e-01</leafValues></_>
        <_>
          <internalNodes>
            0 -1 59 -175366915 -34339984 -164595719 523796473
            -1216192772 -71746947 -276255745 -1087725569</internalNodes>
          <leafValues>
            -3.6052182316780090e-01 4.7139734029769897e-01</leafValues></_></weakClassifiers></_>
    <!-- stage 2 -->
    <_>
      <maxWeakCount>7</maxWeakCount>
      <stageThreshold>-1.6317338943481445e+00</stageThreshold>
      <weakClassifiers>
        <_>
          <internalNodes>
            0 -1 212 -213 -273680433 -219692510 -252715281 -134482683
            53724675 -476056702 -134217729</internalNodes>
          <leafValues>
            -7.2303432226181030e-01 4.4887664914131165e-01</leafValues></_>
        <_>
          <internalNodes>
            0 -1 20 -285217074 -498179158 -1066039094 -487922994
            -427862258 1078932302 -134229661 -134220833</internalNodes>
          <leafValues>
            -5.8426791429519653e-01 4.8883929848670959e-01</leafValues></_>
        <_>
          <internalNodes>
            0 -1 215 -1050749 -2050293937 -219415902 -254820402
            -1488988607 122352918 -152047198 -134217729</internalNodes>
          <leafValues>
            -3.7326255440711975e-01 5.8686006069183350e-01</leafValues></_>
        <_>
          <internalNodes>
            0 -1 48 -251667810 -361295106 1882870506 1882370790
            -1365570040 -1688773614 -168828962 -9703493</internalNodes>
          <leafValues>
            -3.5841098427772522e-01 5.3662925958633423e-01</leafValues></_>
        <_>
          <internalNodes>
            0 -1 17 -202704792 -487968886 1960213634 -257103272
            -864652722 6778473 -243288073 -143394891</internalNodes>
          <leafValues>
            -4.1788405179977417e-01 4.0088576078414917e-01</leafValues></_>
        <_>
          <internalNodes>
            0 -1 186 -1290077869 -1221863438 -679568015 -545321767
            -1350565902 -1910605575 255710448 -1643128679</internalNodes>
          <leafValues>
            -3.7909603118896484e-01 4.5589348673820496e-01</leafValues></_>
        <_>
          <internalNodes>
            0 -1 108 -203424854 -784136864 -998337376 825306768
            136503948 369183777 1562313194 1364455962</internalNodes>
          <leafValues>
            -4.3928673863410950e-01 3.8545215129852295e-01</leafValues></_></weakClassifiers></_>
    <!-- stage 3 -->
    <_>
      <maxWeakCount>10</maxWeakCount>
      <stageThreshold>-1.5523737668991089e+00</stageThreshold>
      <weakClassifiers>
        <_>
          <internalNodes>
            0 -1 22 -1 2147448669 1041956799 1060143071 -49153
            2080341981 -1115137 -1</internalNodes>
          <leafValues>
            -6.2237364053726196e-01 4.0586796402931213e-01</leafValues></_>
        <_>
          <internalNodes>
            0 -1 147 -1648633351 -1073747239 -772058631 -574620291
            -1610747969 -1999176195 -973486919 -1912739333</internalNodes>
          <leafValues>
            -3.8374575972557068e-01 5.1008540391921997e-01</leafValues></_>
        <_>
          <internalNodes>
            0 -1 76 -585622020 -36078090 -1621336579 -549686023
            -1113932802 -1677923845 1604099566 -1618339656</internalNodes>
          <leafValues>
            -3.9632895588874817e-01 4.0446525812149048e-01</leafValues></_>
        <_>
          <internalNodes>
            0 -1 218 -134218782 -806446353 -616565790 -201474453
            -541591694 123661670 -671878685 -671612933</internalNodes>
          <leafValues>
            -3.5452169179916382e-01 4.5633414387702942e-01</leafValues></_>
        <_>
          <internalNodes>
            0 -1 110 1050151293 -1223016464 1050230269 -1644426760
            -1615307777 -1647570945 2147253755 -1346756612</internalNodes>
          <leafValues>
            -3.8034358620643616e-01 3.6184647679328918e-01</leafValues></_>
        <_>
          <internalNodes>
            0 -1 206 -67108885 -950749959 -159424846 1886123743
            -1627531516 1579503366 -155209006 -234107169</internalNodes>
          <leafValues>
            -2.6655921339988708e-01 4.9003142118453979e-01</leafValues></_>
        <_>
          <internalNodes>
            0 -1 4 -950274645 -5047392 2146399103 -8751054 785054719
            -286069003 -1898357249 -905980712</internalNodes>
          <leafValues>
            -3.0787733197212219e-01 4.4515195488929749e-01</leafValues></_>
        <_>
          <internalNodes>
            0 -1 180 -1103439880 1068236240 -46923779 2145213881
            -1480803078 -1090638040 520983768 -1692871472</internalNodes>
          <leafValues>
            -4.1948884725570679e-01 3.3937492966651917e-01</leafValues></_>
        <_>
          <internalNodes>
            0 -1 80 -641003312 -1120225666 1040019701 -1074128133
            -1924256802 -1962954758 301731005 -1984206758</internalNodes>
          <leafValues>
            -3.4897297620773315e-01 3.7525138258934021e-01</leafValues></_>
        <_>
          <internalNodes>
            0 -1 175 -92284355 2000551429 765853695 -95978201 -8389444
            -71436940 -534125332 -514588865</internalNodes>
          <leafValues>
            -2.9160541296005249e-01 4.7384825348854065e-01</leafValues></_></weakClassifiers></_>
    <!-- stage 4 -->
    <_>
      <maxWeakCount>10</maxWeakCount>
      <stageThreshold>-2.0179088115692139e+00</stageThreshold>
      <weakClassifiers>
        <_>
          <internalNodes>
            0 -1 201 -10757937 -2099385 -608436225 -10748041 -8650753
            -67385410 -335544325 -83166369</internalNodes>
          <leafValues>
            -6.3307338953018188e-01 3.0961233377456665e-01</leafValues></_>
        <_>
          <internalNodes>
            0 -1 26 -209716498 -201457665 -252249346 1895686911
            -136353009 1113407260 -8409601 1937768159</internalNodes>
          <leafValues>
            -4.9471101164817810e-01 3.3661431074142456e-01</leafValues></_>
        <_>
          <internalNodes>
            0 -1 146 202422780 -1141334792 -209781251 -549708675
            1069072316 -463944 1060945852 -1089988392</internalNodes>
          <leafValues>
            -5.0168287754058838e-01 3.0449274182319641e-01</leafValues></_>
        <_>
          <internalNodes>
            0 -1 66 2111642097 -318947 2135906815 2142977501 -1884667938
            -205068 1052442623 1060691967</internalNodes>
          <leafValues>
            -4.1145586967468262e-01 3.6153647303581238e-01</leafValues></_>
        <_>
          <internalNodes>
            0 -1 178 -1612767873 -1145392550 2130654559 -1589577
            -1879581221 -1078290537 100471004 -134486022</internalNodes>
          <leafValues>
            -2.9079544544219971e-01 4.8406448960304260e-01</leafValues></_>
        <_>
          <internalNodes>
            0 -1 77 97583479 502676719 -1376241665 -177157 231544056
            219475902 503057624 -847769664</internalNodes>
          <leafValues>
            -3.9817401766777039e-01 3.3028104901313782e-01</leafValues></_>
        <_>
          <internalNodes>
            0 -1 15 -354435098 -892406290 1626547842 -790959378
            -1291854241 1078393687 1994356085 2011153463</internalNodes>
          <leafValues>
            -4.5234102010726929e-01 3.0637988448143005e-01</leafValues></_>
        <_>
          <internalNodes>
            0 -1 168 -1148003331 -1073902307 1073561563 -75629159
            -1074024450 -771 459226815 2147173837</internalNodes>
          <leafValues>
            -3.5921093821525574e-01 3.8409999012947083e-01</leafValues></_>
        <_>
          <internalNodes>
            0 -1 91 436771196 -546961928 -32049153 -9601875 -1990837761
            -1409782116 253687807 530451656</internalNodes>
          <leafValues>
            -5.0641143321990967e-01 2.5146168470382690e-01</leafValues></_>
        <_>
          <internalNodes>
            0 -1 221 -8913925 -1880103192 -134221325 383778781
            -1344342063 -1910952386 335013795 1474164703</internalNodes>
          <leafValues>
            -3.3309134840965271e-01 4.0262246131896973e-01</leafValues></_></weakClassifiers></_>
    <!-- stage 5 -->
    <_>
      <maxWeakCount>11</maxWeakCount>
      <stageThreshold>-1.9125229120254517e+00</stageThreshold>
      <weakClassifiers>
        <_>
          <internalNodes>
            0 -1 33 -1 -2130049 974320639 -9176069 -33846273 -76605614
            -93328385 -11010113</internalNodes>
          <leafValues>
            -5.9338128566741943e-01 5.0114768743515015e-01</leafValues></_>
        <_>
          <internalNodes>
            0 -1 156 -547357701 -270552129 1509642737 -603997189
            -1988100097 -1897223169 1576983803 -571475969</internalNodes>
          <leafValues>
            -3.2901999354362488e-01 6.0085994005203247e-01</leafValues></_>
        <_>
          <internalNodes>
            0 -1 173 -75507617 -9308907 -8389409 2067267451 -92277521
            -29623467 -497815809 -14943617</internalNodes>
          <leafValues>
            -2.4861995875835419e-01 6.0888475179672241e-01</leafValues></_>
        <_>
          <internalNodes>
            0 -1 44 -673457153 -621066565 1073733119 1529894654
            -805414694 -872459777 -1917394949 -619981569</internalNodes>
          <leafValues>
            -2.2360277175903320e-01 5.8357065916061401e-01</leafValues></_>
        <_>
          <internalNodes>
            0 -1 43 -806880269 -972034390 2094518963 -748690447
            -823334934 -830543313 1140717559 -536881673</internalNodes>
          <leafValues>
            -2.3169721662998199e-01 5.1163303852081299e-01</leafValues></_>
        <_>
          <internalNodes>
            0 -1 179 1476377595 -305140178 1542673331 -67519977
            -1812137989 -1932529682 -998248206 1472199402</internalNodes>
          <leafValues>
            -3.0034279823303223e-01 4.1902697086334229e-01</leafValues></_>
        <_>
          <internalNodes>
            0 -1 118 661722165 891165187 410032831 456231377 475868989
            -1703073979 1010268351 2014674731</internalNodes>
          <leafValues>
            -3.8486286997795105e-01 3.1971135735511780e-01</leafValues></_>
        <_>
          <internalNodes>
            0 -1 60 -487224781 -1166116877 1781726207 1376812790
            -566245139 -614651530 535711743 -296789249</internalNodes>
          <leafValues>
            -2.8555959463119507e-01 4.2015552520751953e-01</leafValues></_>
        <_>
          <internalNodes>
            0 -1 160 -607532465 -616671898 1739578303 -549751717
            -151135034 -84009747 -1531142498 -83166533</internalNodes>
          <leafValues>
            -2.5703597068786621e-01 4.7042301297187805e-01</leafValues></_>
        <_>
          <internalNodes>
            0 -1 50 1523833466 -612427229 842719999 1377352558
            -1111619512 -1132507052 -1216823585 -8402098</internalNodes>
          <leafValues>
            -2.7377048134803772e-01 4.1991642117500305e-01</leafValues></_>
        <_>
          <internalNodes>
            0 -1 74 898319807 526214975 352146171 322169773 1872492223
            -1912889927 1760300511 1033395532</internalNodes>
          <leafValues>
            -3.4670898318290710e-01 3.6173379421234131e-01</leafValues></_></weakClassifiers></_>
    <!-- stage 6 -->
    <_>
      <maxWeakCount>12</maxWeakCount>
      <stageThreshold>-1.6837916374206543e+00</stageThreshold>
      <weakClassifiers>
        <_>
          <internalNodes>
            0 -1 214 -1 -4736518 1568478428 -6292485 802094591 966539229
            1574788604 -4097</internalNodes>
          <leafValues>
            -6.3521456718444824e-01 3.2089552283287048e-01</leafValues></_>
        <_>
          <internalNodes>
            0 -1 8 -892604469 -616831045 -814768673 -36700217 -487658770
            -1171259669 1118818255 -1043344185</internalNodes>
          <leafValues>
            -3.5856002569198608e-01 4.9024036526679993e-01</leafValues></_>
        <_>
          <internalNodes>
            0 -1 196 -4194305 -4546824 -12291 -67150595 -1078460417
            -1074003973 480206331 -2106881</internalNodes>
          <leafValues>
            -2.1007825434207916e-01 6.4823985099792480e-01</leafValues></_>
        <_>
          <internalNodes>
            0 -1 68 2018128508 -38126722 487784405 2133879514 -808710420
            -2341764 -585168131 1328754906</internalNodes>
          <leafValues>
            -4.5357239246368408e-01 2.8237253427505493e-01</leafValues></_>
        <_>
          <internalNodes>
            0 -1 137 473174096 2146438804 -136675393 959913812
            1069159848 -1174727207 960002557 992614654</internalNodes>
          <leafValues>
            -6.0801100730895996e-01 1.9772613048553467e-01</leafValues></_>
        <_>
          <internalNodes>
            0 -1 39 -269500421 -202967053 -574465 -181581977 -1905721409
            -285540361 -812917265 -537930601</internalNodes>
          <leafValues>
            -2.1501280367374420e-01 5.7115328311920166e-01</leafValues></_>
        <_>
          <internalNodes>
            0 -1 62 -1718476811 -64419 -1278550529 1026062077
            -1227221096 -18924151 -1184581921 -1088790804</internalNodes>
          <leafValues>
            -3.5884332656860352e-01 3.5604876279830933e-01</leafValues></_>
        <_>
          <internalNodes>
            0 -1 185 -46774692 -145878208 480148057 1583578739 -88694204
            -570533632 -1463885846 -96799297</internalNodes>
          <leafValues>
            -3.5824576020240784e-01 3.5358521342277527e-01</leafValues></_>
        <_>
          <internalNodes>
            0 -1 130 13768956 -76011027 1066466002 489732794 676990104
            -1115798055 2127474536 -10298644</internalNodes>
          <leafValues>
            -4.4980117678642273e-01 2.6280838251113892e-01</leafValues></_>
        <_>
          <internalNodes>
            0 -1 18 -78120737 -621121921 -888512562 1935735487
            -813743956 1112244088 -545259874 -679479833</internalNodes>
          <leafValues>
            -2.4826376140117645e-01 4.7674846649169922e-01</leafValues></_>
        <_>
          <internalNodes>
            0 -1 155 -6489736 -1154339144 1602117085 -139201027
            -1142227462 -1209073732 10408425 -1644454453</internalNodes>
          <leafValues>
            -3.1046304106712341e-01 4.0067186951637268e-01</leafValues></_>
        <_>
          <internalNodes>
            0 -1 55 1628912607 492026871 1977051324 -1644256276
            1573648383 825277438 803197032 750298420</internalNodes>
          <leafValues>
            -4.2065933346748352e-01 2.9209679365158081e-01</leafValues></_></weakClassifiers></_>
    <!-- stage 7 -->
    <_>
      <maxWeakCount>12</maxWeakCount>
      <stageThreshold>-1.5275399684906006e+00</stageThreshold>
      <weakClassifiers>
        <_>
          <internalNodes>
            0 -1 2 -2359301 -8197 -33 -517 -809501189 -13857 -874522113
            -536879617</internalNodes>
          <leafValues>
            -5.7538056373596191e-01 5.5733335018157959e-01</leafValues></_>
        <_>
          <internalNodes>
            0 -1 197 -1051653 -5260406 -135409167 -69226499 -1207961605
            -1895056065 1391457488 -536871941</internalNodes>
          <leafValues>
            -3.4657555818557739e-01 5.2953463792800903e-01</leafValues></_>
        <_>
          <internalNodes>
            0 -1 52 -612369665 -16577 -1036979457 1886451935 -8401281
            -8451308 -1077936133 -8388609</internalNodes>
          <leafValues>
            -2.6491990685462952e-01 5.4277962446212769e-01</leafValues></_>
        <_>
          <internalNodes>
            0 -1 186 -586285061 -138750288 -536939011 -536879639
            -1209008385 -1659049733 490263737 -542123781</internalNodes>
          <leafValues>
            -2.0608332753181458e-01 5.6307679414749146e-01</leafValues></_>
        <_>
          <internalNodes>
            0 -1 209 -8393905 -1095846138 -867770455 -817498785
            -1308626924 914319200 1259327951 -159649025</internalNodes>
          <leafValues>
            -2.4874867498874664e-01 4.6317496895790100e-01</leafValues></_>
        <_>
          <internalNodes>
            0 -1 40 -1951756485 -68504592 1449318655 401169552
            -1959054437 -1443108993 263151583 -541862415</internalNodes>
          <leafValues>
            -3.1667426228523254e-01 3.6431759595870972e-01</leafValues></_>
        <_>
          <internalNodes>
            0 -1 183 -16903073 2044272491 -700457217 2031951607
            -553737992 -671121605 -501171974 -133522178</internalNodes>
          <leafValues>
            -2.7019175887107849e-01 4.0976080298423767e-01</leafValues></_>
        <_>
          <internalNodes>
            0 -1 103 158860604 -1108984424 413046775 1004281212
            712780715 -1163253080 762578427 530980201</internalNodes>
          <leafValues>
            -6.2548893690109253e-01 2.0974391698837280e-01</leafValues></_>
        <_>
          <internalNodes>
            0 -1 24 -1694536980 -1567666450 -757075736 1384035550
            1065840392 37366541 -1226902171 2004805169</internalNodes>
          <leafValues>
            -5.5857700109481812e-01 1.8562190234661102e-01</leafValues></_>
        <_>
          <internalNodes>
            0 -1 154 -628173743 -1156852045 -35427 1068276845
            -1075839011 -1354762817 1567461808 -812925270</internalNodes>
          <leafValues>
            -2.9063299298286438e-01 4.0946930646896362e-01</leafValues></_>
        <_>
          <internalNodes>
            0 -1 79 2015295984 -145835208 -543615491 -678287097
            445575352 -1883966034 486364408 -1648723778</internalNodes>
          <leafValues>
            -3.5764384269714355e-01 3.2594823837280273e-01</leafValues></_>
        <_>
          <internalNodes>
            0 -1 93 -276300898 -67112356 1947625568 -1288977918
            1852695534 458723003 -966341510 -647780742</internalNodes>
          <leafValues>
            -3.4639245271682739e-01 3.3106598258018494e-01</leafValues></_></weakClassifiers></_>
    <!-- stage 8 -->
    <_>
      <maxWeakCount>13</maxWeakCount>
      <stageThreshold>-1.8480807542800903e+00</stageThreshold>
      <weakClassifiers>
        <_>
          <internalNodes>
            0 -1 3 -609225221 -67372609 -1053185 -204472585 -939786241
            -537943873 -873464833 -808463907</internalNodes>
          <leafValues>
            -6.1360663175582886e-01 2.7817878127098083e-01</leafValues></_>
        <_>
          <internalNodes>
            0 -1 219 -7190 -1884378897 2012313073 -1744982789
            -2118126353 116040239 -243796494 1442840575</internalNodes>
          <leafValues>
            -5.0474601984024048e-01 3.0004510283470154e-01</leafValues></_>
        <_>
          <internalNodes>
            0 -1 27 -67110657 -94422155 274723519 1895689215 -1102068
            -295232140 -16918657 2004877311</internalNodes>
          <leafValues>
            -3.3659866452217102e-01 3.9635863900184631e-01</leafValues></_>
        <_>
          <internalNodes>
            0 -1 191 -136325605 -44061154 281018103 1381757823 -84149748
            -10560242 -354419462 -92607761</internalNodes>
          <leafValues>
            -2.7267995476722717e-01 4.7739392518997192e-01</leafValues></_>
        <_>
          <internalNodes>
            0 -1 167 -700975109 -5308549 -536915469 -5275651 -1073758221
            -1967194121 1434449403 -536870966</internalNodes>
          <leafValues>
            -2.0280762016773224e-01 5.6641113758087158e-01</leafValues></_>
        <_>
          <internalNodes>
            0 -1 34 -101521317 -8945869 955414271 -214893574 -1101041749
            -8487051 -541201985 -9213329</internalNodes>
          <leafValues>
            -2.6073586940765381e-01 4.5877417922019958e-01</leafValues></_>
        <_>
          <internalNodes>
            0 -1 176 1946155780 1972223724 -1916322196 -2136148262
            -537019648 20965247 -136334336 -1795162421</internalNodes>
          <leafValues>
            -4.4047945737838745e-01 2.7491599321365356e-01</leafValues></_>
        <_>
          <internalNodes>
            0 -1 157 -289615785 -113632234 -1107558915 -48411789
            -570813698 -41 985558974 -1372950600</internalNodes>
          <leafValues>
            -3.0458006262779236e-01 3.6952555179595947e-01</leafValues></_>
        <_>
          <internalNodes>
            0 -1 65 -1687546828 1593183932 1966748543 1570396669
            2050661614 -68540182 -1358395586 1865043436</internalNodes>
          <leafValues>
            -5.1601147651672363e-01 2.3148591816425323e-01</leafValues></_>
        <_>
          <internalNodes>
            0 -1 116 942734135 521160175 509149119 997207167 -176705859
            -36323625 -35151105 -1378730759</internalNodes>
          <leafValues>
            -3.1743896007537842e-01 3.7217694520950317e-01</leafValues></_>
        <_>
          <internalNodes>
            0 -1 41 1812971859 -1365073182 -429391918 -69471128
            -2048925977 -890308618 375223989 -542394446</internalNodes>
          <leafValues>
            -3.2035806775093079e-01 3.5705745220184326e-01</leafValues></_>
        <_>
          <internalNodes>
            0 -1 216 -1889822478 -1347767248 1600454000 -274432612
            -1946553091 723247447 1609355757 -889782787</internalNodes>
          <leafValues>
            -3.5887053608894348e-01 3.2240775227546692e-01</leafValues></_>
        <_>
          <internalNodes>
            0 -1 187 -1424297793 -574726152 1507816957 -1157702179
            -1349599239 -1628791355 526376444 -1612980741</internalNodes>
          <leafValues>
            -2.8291499614715576e-01 4.0073484182357788e-01</leafValues></_></weakClassifiers></_>
    <!-- stage 9 -->
    <_>
      <maxWeakCount>12</maxWeakCount>
      <stageThreshold>-1.8616800308227539e+00</stageThreshold>
      <weakClassifiers>
        <_>
          <internalNodes>
            0 -1 171 -8389377 -527011 -541067265 -12846209 -4195585
            -1153 -1025 -12846337</internalNodes>
          <leafValues>
            -5.7703197002410889e-01 4.4488501548767090e-01</leafValues></_>
        <_>
          <internalNodes>
            0 -1 49 -32769 -136503819 1073586039 1058619229 -1346860388
            -16827016 -1448542741 1034682367</internalNodes>
          <leafValues>
            -4.1884875297546387e-01 3.4339004755020142e-01</leafValues></_>
        <_>
          <internalNodes>
            0 -1 135 -218375425 -546496771 -1405945089 305168122
            -3158310 -25207211 -41217 -8659202</internalNodes>
          <leafValues>
            -2.6856458187103271e-01 5.1790511608123779e-01</leafValues></_>
        <_>
          <internalNodes>
            0 -1 15 -25301021 -896598043 -85499902 -757077014 -134226212
            1079508300 -153094186 -135272717</internalNodes>
          <leafValues>
            -3.1718581914901733e-01 3.9195433259010315e-01</leafValues></_>
        <_>
          <internalNodes>
            0 -1 204 -77606393 -16258547 -398475745 1934618447
            -1217400666 -915491291 137229822 -226820193</internalNodes>
          <leafValues>
            -2.6747477054595947e-01 4.3332645297050476e-01</leafValues></_>
        <_>
          <internalNodes>
            0 -1 51 -18891265 -8430220 1513668541 1932130238 -272689784
            -286304747 -69954 -13500929</internalNodes>
          <leafValues>
            -2.2797849774360657e-01 5.1296782493591309e-01</leafValues></_>
        <_>
          <internalNodes>
            0 -1 222 -1363493889 -1142374404 1610044381 -1222018120
            799975422 -1350910475 1056722413 -839004193</internalNodes>
          <leafValues>
            -2.7718999981880188e-01 3.9820465445518494e-01</leafValues></_>
        <_>
          <internalNodes>
            0 -1 184 -539276193 -1074057123 -1100041729 1057666677
            -17159014 -822673803 -163258629 -83169537</internalNodes>
          <leafValues>
            -2.4048730731010437e-01 4.5599213242530823e-01</leafValues></_>
        <_>
          <internalNodes>
            0 -1 81 -2000715333 -1796034563 301544689 -579897358
            -1623848513 -1881264451 1431264478 -858175793</internalNodes>
          <leafValues>
            -2.9573372006416321e-01 3.8448974490165710e-01</leafValues></_>
        <_>
          <internalNodes>
            0 -1 82 2002773498 1943777970 -1649230820 2112029216
            1988055920 984388342 2100309168 720861946</internalNodes>
          <leafValues>
            -4.1214734315872192e-01 2.6741373538970947e-01</leafValues></_>
        <_>
          <internalNodes>
            0 -1 69 983603864 -872468 -8915491 -648494379 -1456865634
            -1073746884 -1305219271 -1954723608</internalNodes>
          <leafValues>
            -3.7972286343574524e-01 2.9427823424339294e-01</leafValues></_>
        <_>
          <internalNodes>
            0 -1 165 -513279102 -1154958880 -774537583 -1250309170
            -1078070280 -1929860221 1433788690 -1748109009</internalNodes>
          <leafValues>
            -3.4717279672622681e-01 3.1459966301918030e-01</leafValues></_></weakClassifiers></_>
    <!-- stage 10 -->
    <_>
      <maxWeakCount>13</maxWeakCount>
      <stageThreshold>-1.4565131664276123e+00</stageThreshold>
      <weakClassifiers>
        <_>
          <internalNodes>
            0 -1 46 -8225 -4227273 2133524351 2134597567 -1081173314
            -35402025 -276103169 -4456449</internalNodes>
          <leafValues>
            -5.8548939228057861e-01 4.0509089827537537e-01</leafValues></_>
        <_>
          <internalNodes>
            0 -1 211 -2302 -1080368345 -1362103060 -945422849 -201346944
            66978086 884986281 -159383809</internalNodes>
          <leafValues>
            -4.2695844173431396e-01 3.4662437438964844e-01</leafValues></_>
        <_>
          <internalNodes>
            0 -1 13 -139465785 -490296402 -201904398 -210766110
            -822607923 1078783750 1909979123 -136317053</internalNodes>
          <leafValues>
            -3.1646406650543213e-01 4.1242846846580505e-01</leafValues></_>
        <_>
          <internalNodes>
            0 -1 177 -536881671 -1086603374 -641 -9437185 -1749028359
            -1373718605 483229948 -12582978</internalNodes>
          <leafValues>
            -2.8051739931106567e-01 4.5498600602149963e-01</leafValues></_>
        <_>
          <internalNodes>
            0 -1 63 -257 -67404162 1060302335 2132015871 -1342224706
            -33591690 -1108217889 -8651025</internalNodes>
          <leafValues>
            -1.9777578115463257e-01 5.9452039003372192e-01</leafValues></_>
        <_>
          <internalNodes>
            0 -1 188 -1372414977 -1627870148 -579502081 -42263051
            -1429558530 -1158762818 129551871 -12833</internalNodes>
          <leafValues>
            -2.4992682039737701e-01 4.4676753878593445e-01</leafValues></_>
        <_>
          <internalNodes>
            0 -1 109 -620770806 -714014720 -228798414 1347046671
            -963979254 -283616994 -1709541702 -95709473</internalNodes>
          <leafValues>
            -2.7774882316589355e-01 4.1263228654861450e-01</leafValues></_>
        <_>
          <internalNodes>
            0 -1 161 -789315336 -38581097 -1108484615 2147096375
            -1289822529 -537215381 -43450630 -1153774085</internalNodes>
          <leafValues>
            -3.0420145392417908e-01 3.7309333682060242e-01</leafValues></_>
        <_>
          <internalNodes>
            0 -1 21 -76940689 -75821354 -1171064097 322087546 -545305448
            -1031852220 -19472609 -545278621</internalNodes>
          <leafValues>
            -2.6075029373168945e-01 4.3928945064544678e-01</leafValues></_>
        <_>
          <internalNodes>
            0 -1 192 -84353963 -134531267 636353951 -1292930802
            -352716035 -537241985 1216079034 -81526785</internalNodes>
          <leafValues>
            -2.3006482422351837e-01 4.5803651213645935e-01</leafValues></_>
        <_>
          <internalNodes>
            0 -1 127 -890509080 -1400210270 1332343793 -1812014989
            -979110160 211803970 1190913172 -614730253</internalNodes>
          <leafValues>
            -3.2655665278434753e-01 3.3509477972984314e-01</leafValues></_>
        <_>
          <internalNodes>
            0 -1 71 -1448959816 1021200816 -1665802793 -38441736
            -2085044481 -1101599292 -1994654216 -1612721744</internalNodes>
          <leafValues>
            -3.3756905794143677e-01 3.3111011981964111e-01</leafValues></_>
        <_>
          <internalNodes>
            0 -1 92 -180225818 -1320183106 -1159936666 1405710212
            1709753837 -1158758389 1748246664 1769439786</internalNodes>
          <leafValues>
            -3.7275725603103638e-01 2.9737591743469238e-01</leafValues></_></weakClassifiers></_>
    <!-- stage 11 -->
    <_>
      <maxWeakCount>12</maxWeakCount>
      <stageThreshold>-1.4922389984130859e+00</stageThreshold>
      <weakClassifiers>
        <_>
          <internalNodes>
            0 -1 220 -1073807361 -1141456898 536565237 -1025 -1073807361
            -1074073601 1610481151 -1</internalNodes>
          <leafValues>
            -6.1863392591476440e-01 2.0459081232547760e-01</leafValues></_>
        <_>
          <internalNodes>
            0 -1 48 -83888385 -16811265 -159450369 1920660222 -2128306
            -8430469 -141313 -8388629</internalNodes>
          <leafValues>
            -3.5037404298782349e-01 4.3445989489555359e-01</leafValues></_>
        <_>
          <internalNodes>
            0 -1 212 -81 -806358017 -957417946 -488112147 -3483 92264231
            -134220988 -1</internalNodes>
          <leafValues>
            -3.1424322724342346e-01 4.2152705788612366e-01</leafValues></_>
        <_>
          <internalNodes>
            0 -1 145 968383932 -45336647 -270582273 -1073889548
            -1654735879 -1076019204 -1355194371 -1074258440</internalNodes>
          <leafValues>
            -4.4964876770973206e-01 2.7102717757225037e-01</leafValues></_>
        <_>
          <internalNodes>
            0 -1 57 -1349784581 -1364275973 -411041801 -637709835
            -1891647493 -1409548869 230544893 -538979115</internalNodes>
          <leafValues>
            -2.7385208010673523e-01 4.4876447319984436e-01</leafValues></_>
        <_>
          <internalNodes>
            0 -1 115 683544405 1055000056 737618413 793518052 800865200
            -1091424257 535833468 800861884</internalNodes>
          <leafValues>
            -5.2956813573837280e-01 2.3048315942287445e-01</leafValues></_>
        <_>
          <internalNodes>
            0 -1 148 -1946271745 627576764 1073741789 -1406125124
            -1879276392 -67572745 -2464260 -1359431266</internalNodes>
          <leafValues>
            -3.4021359682083130e-01 3.2392671704292297e-01</leafValues></_>
        <_>
          <internalNodes>
            0 -1 189 -50374633 -17615233 -88105105 -13731978 -2063148
            2029911519 -17432580 -96811618</internalNodes>
          <leafValues>
            -2.8189498186111450e-01 4.0109905600547791e-01</leafValues></_>
        <_>
          <internalNodes>
            0 -1 26 -348282129 -537952834 -218694913 -218499336
            -1344326929 -883149556 -144721956 -147466638</internalNodes>
          <leafValues>
            -2.6520475745201111e-01 4.1585683822631836e-01</leafValues></_>
        <_>
          <internalNodes>
            0 -1 0 531217331 532395445 -1879461889 -1242374954
            -1343240731 -188812047 -805315207 -945045416</internalNodes>
          <leafValues>
            -2.7152603864669800e-01 3.9308160543441772e-01</leafValues></_>
        <_>
          <internalNodes>
            0 -1 126 -362917831 1048395441 -1305299201 -1154439125
            -75541768 -813819136 -1082445890 -114167966</internalNodes>
          <leafValues>
            -3.0528849363327026e-01 3.6040487885475159e-01</leafValues></_>
        <_>
          <internalNodes>
            0 -1 30 -939556097 -33554481 -1132577089 1349973759
            -209723811 -545423547 -1082900995 -178260258</internalNodes>
          <leafValues>
            -2.6513746380805969e-01 4.2516064643859863e-01</leafValues></_></weakClassifiers></_>
    <!-- stage 12 -->
    <_>
      <maxWeakCount>13</maxWeakCount>
      <stageThreshold>-1.7773932218551636e+00</stageThreshold>
      <weakClassifiers>
        <_>
          <internalNodes>
            0 -1 23 -8650753 -4491777 -138413573 1058078138 -25346
            -16641 -1 -1</internalNodes>
          <leafValues>
            -5.9677881002426147e-01 2.4913093447685242e-01</leafValues></_>
        <_>
          <internalNodes>
            0 -1 198 -2053 -1346454597 -538979851 -1048577 -1074790977
            -1347747842 1442698747 -536870913</internalNodes>
          <leafValues>
            -2.8894537687301636e-01 5.5081361532211304e-01</leafValues></_>
        <_>
          <internalNodes>
            0 -1 210 -209 -1913655297 -385882386 -219693057 -1210060027
            1098905380 -403704082 -134221841</internalNodes>
          <leafValues>
            -2.6678964495658875e-01 4.4243821501731873e-01</leafValues></_>
        <_>
          <internalNodes>
            0 -1 11 -280498193 -353966106 -271887549 2071976919
            1341122511 1626144743 1333526519 -672664093</internalNodes>
          <leafValues>
            -2.6778993010520935e-01 4.2203640937805176e-01</leafValues></_>
        <_>
          <internalNodes>
            0 -1 187 -1237328905 464567736 1608480637 -604480003
            -1073758209 -1346372353 98360805 -536879719</internalNodes>
          <leafValues>
            -2.8209877014160156e-01 3.9234060049057007e-01</leafValues></_>
        <_>
          <internalNodes>
            0 -1 98 -1906434849 -1908766546 502234493 -1646330370
            -1935888905 -1898017050 1442649593 -610428484</internalNodes>
          <leafValues>
            -3.1995671987533569e-01 3.4050473570823669e-01</leafValues></_>
        <_>
          <internalNodes>
            0 -1 7 -1148230807 -89588741 -1518870553 2138733762
            -903930905 -395591693 1507683903 -942680715</internalNodes>
          <leafValues>
            -2.8392335772514343e-01 3.7066632509231567e-01</leafValues></_>
        <_>
          <internalNodes>
            0 -1 131 1458753143 -56325 410155775 275828351 -1610647431
            -1150279907 -1361063956 -25244933</internalNodes>
          <leafValues>
            -2.5575083494186401e-01 4.0525665879249573e-01</leafValues></_>
        <_>
          <internalNodes>
            0 -1 61 -1032656258 -226870057 -1305825545 -1301220610
            -287636519 236412286 -111734963 -817411378</internalNodes>
          <leafValues>
            -3.5228642821311951e-01 3.0555900931358337e-01</leafValues></_>
        <_>
          <internalNodes>
            0 -1 95 -1222534664 -1079998408 2044304893 -536897068
            1069547517 -319226900 490657727 -1103686248</internalNodes>
          <leafValues>
            -3.6916944384574890e-01 2.9022189974784851e-01</leafValues></_>
        <_>
          <internalNodes>
            0 -1 151 1752660036 -631314940 -1166229898 386886759
            -20130088 2063058183 -1161576900 673361535</internalNodes>
          <leafValues>
            -4.7667410969734192e-01 2.3125885426998138e-01</leafValues></_>
        <_>
          <internalNodes>
            0 -1 14 1366634399 391920567 -1655589027 1530728156
            889943163 135540031 837423934 568144236</internalNodes>
          <leafValues>
            -4.0234184265136719e-01 2.6069137454032898e-01</leafValues></_>
        <_>
          <internalNodes>
            0 -1 162 1746917910 1533837083 1085726360 2096875 2137144064
            -78190841 -117972242 -128205845</internalNodes>
          <leafValues>
            -3.6587947607040405e-01 2.9407250881195068e-01</leafValues></_></weakClassifiers></_>
    <!-- stage 13 -->
    <_>
      <maxWeakCount>14</maxWeakCount>
      <stageThreshold>-1.7448415756225586e+00</stageThreshold>
      <weakClassifiers>
        <_>
          <internalNodes>
            0 -1 156 -8193 -262145 -610314787 -536887297 -71303169
            -1895825409 -570425345 -536870945</internalNodes>
          <leafValues>
            -5.6816643476486206e-01 3.7920251488685608e-01</leafValues></_>
        <_>
          <internalNodes>
            0 -1 58 -8449 -41669 -1083506689 1930623999 -16786214 -60677
            -2359297 -4456449</internalNodes>
          <leafValues>
            -2.7111768722534180e-01 5.7051485776901245e-01</leafValues></_>
        <_>
          <internalNodes>
            0 -1 1 -537133581 -1677723137 -2013265921 -67371529
            -806432817 -4534277 -856698933 -857745925</internalNodes>
          <leafValues>
            -2.1892121434211731e-01 5.1944106817245483e-01</leafValues></_>
        <_>
          <internalNodes>
            0 -1 217 -1090588673 -121872 2113765373 -696331 -1346437121
            -1078002562 500980959 -262149</internalNodes>
          <leafValues>
            -2.2664220631122589e-01 4.3809351325035095e-01</leafValues></_>
        <_>
          <internalNodes>
            0 -1 133 2031769853 2080316415 447397375 1932673023
            -33597352 -6547682 -807876609 -76886818</internalNodes>
          <leafValues>
            -2.5307956337928772e-01 3.7849599123001099e-01</leafValues></_>
        <_>
          <internalNodes>
            0 -1 12 -2032168986 244232046 1878975136 -1543854082
            -1207959707 1255470026 1744697270 2146368775</internalNodes>
          <leafValues>
            -4.4848859310150146e-01 2.1754218637943268e-01</leafValues></_>
        <_>
          <internalNodes>
            0 -1 87 -809510149 -1476460818 1501516897 -131073
            -1896956489 -1901926666 1569953180 -537012229</internalNodes>
          <leafValues>
            -2.0829966664314270e-01 4.5116147398948669e-01</leafValues></_>
        <_>
          <internalNodes>
            0 -1 195 -1364284048 1069047416 -12845124 -1619280260
            798807540 28042094 479154684 -63925816</internalNodes>
          <leafValues>
            -4.3553820252418518e-01 2.3350964486598969e-01</leafValues></_>
        <_>
          <internalNodes>
            0 -1 32 1584010801 -1079558627 506621182 858980351
            -545387212 -713148656 264203164 728497661</internalNodes>
          <leafValues>
            -3.8743501901626587e-01 2.5573313236236572e-01</leafValues></_>
        <_>
          <internalNodes>
            0 -1 100 -673256899 -412094676 871394966 286391843
            1844416004 -162240252 -687994290 1944581103</internalNodes>
          <leafValues>
            -3.2835242152214050e-01 2.9859137535095215e-01</leafValues></_>
        <_>
          <internalNodes>
            0 -1 143 678429436 -1223554493 970975967 972164071
            -839548461 -1615483137 -73694212 143142782</internalNodes>
          <leafValues>
            -4.7668087482452393e-01 2.1606169641017914e-01</leafValues></_>
        <_>
          <internalNodes>
            0 -1 120 -889787416 -1562198169 1659848512 -2080655514
            1499301632 6746373 1157391392 1433912439</internalNodes>
          <leafValues>
            -5.8148187398910522e-01 1.6060926020145416e-01</leafValues></_>
        <_>
          <internalNodes>
            0 -1 64 1347969778 1330785254 1602035706 -1887274054
            1183061629 -813731517 -857428771 -900253774</internalNodes>
          <leafValues>
            -4.2467063665390015e-01 2.2866472601890564e-01</leafValues></_>
        <_>
          <internalNodes>
            0 -1 111 -649445366 -750564579 -2097947909 1380743498
            -1432697144 -652776872 -72158481 -754261542</internalNodes>
          <leafValues>
            -3.0676549673080444e-01 3.1862255930900574e-01</leafValues></_></weakClassifiers></_>
    <!-- stage 14 -->
    <_>
      <maxWeakCount>13</maxWeakCount>
      <stageThreshold>-1.4589555263519287e+00</stageThreshold>
      <weakClassifiers>
        <_>
          <internalNodes>
            0 -1 129 -8389633 -8396801 -1089274401 -12845057 -1 -9076939
            -1 -8912897</internalNodes>
          <leafValues>
            -5.5158728361129761e-01 4.0178570151329041e-01</leafValues></_>
        <_>
          <internalNodes>
            0 -1 59 -63480065 -56451 -29830273 2134597631 -68772200
            -71403852 -7668738 2067459327</internalNodes>
          <leafValues>
            -3.9476677775382996e-01 3.2613483071327209e-01</leafValues></_>
        <_>
          <internalNodes>
            0 -1 199 -77870881 -2531393 -12583425 -7602201 -1107296293
            -33837345 -67109153 -81602977</internalNodes>
          <leafValues>
            -2.4820975959300995e-01 4.6138402819633484e-01</leafValues></_>
        <_>
          <internalNodes>
            0 -1 17 -823398673 -487673941 -1054206 -218173714 2004859759
            1081081455 -134219945 -134217737</internalNodes>
          <leafValues>
            -3.0094122886657715e-01 3.4732744097709656e-01</leafValues></_>
        <_>
          <internalNodes>
            0 -1 90 -1648454799 -1088538694 -42510863 -9525002
            -1612728327 -1933775366 368529648 -846200840</internalNodes>
          <leafValues>
            -2.9602301120758057e-01 3.3170646429061890e-01</leafValues></_>
        <_>
          <internalNodes>
            0 -1 181 1325184851 -1490378826 399595155 -1107386692
            -1887977989 -2102739074 1441880058 400831995</internalNodes>
          <leafValues>
            -3.3314090967178345e-01 3.0523848533630371e-01</leafValues></_>
        <_>
          <internalNodes>
            0 -1 36 -97781765 -47 -262145 -1075978 -1414549515 -16389
            -842539781 -536898053</internalNodes>
          <leafValues>
            -2.0015414059162140e-01 5.3978073596954346e-01</leafValues></_>
        <_>
          <internalNodes>
            0 -1 190 1945768996 -1149304459 -1603577089 2138861694
            -1259691084 -152316941 1350194424 -566560129</internalNodes>
          <leafValues>
            -3.7192806601524353e-01 2.6557919383049011e-01</leafValues></_>
        <_>
          <internalNodes>
            0 -1 47 684724840 -17671587 525496319 1779464826 -1661597640
            -271115143 1968855260 1247430894</internalNodes>
          <leafValues>
            -5.7651567459106445e-01 1.7958457767963409e-01</leafValues></_>
        <_>
          <internalNodes>
            0 -1 194 2004873971 -46420102 -655873 -4194695 -1510025321
            -1136813953 424072696 -7603213</internalNodes>
          <leafValues>
            -2.1804535388946533e-01 4.6270409226417542e-01</leafValues></_>
        <_>
          <internalNodes>
            0 -1 78 354162840 2140482940 527240169 1829388154 1010629565
            -307369352 1052772572 195565772</internalNodes>
          <leafValues>
            -5.7332342863082886e-01 1.7358142137527466e-01</leafValues></_>
        <_>
          <internalNodes>
            0 -1 207 -1074925045 738127438 -1398020374 723492205
            995554255 1206867744 1341822172 -227869489</internalNodes>
          <leafValues>
            -2.9029124975204468e-01 3.3724191784858704e-01</leafValues></_>
        <_>
          <internalNodes>
            0 -1 72 -743564804 -541910151 -536896039 2138796636
            1589165304 -1128638836 -1388388807 253403080</internalNodes>
          <leafValues>
            -4.5634898543357849e-01 2.1571576595306396e-01</leafValues></_></weakClassifiers></_>
    <!-- stage 15 -->
    <_>
      <maxWeakCount>13</maxWeakCount>
      <stageThreshold>-1.6934636831283569e+00</stageThreshold>
      <weakClassifiers>
        <_>
          <internalNodes>
            0 -1 54 -9175297 -53249 -282001409 -9176065 -42221569
            -1104265 -8912897 -8913153</internalNodes>
          <leafValues>
            -5.7949292659759521e-01 2.7060350775718689e-01</leafValues></_>
        <_>
          <internalNodes>
            0 -1 158 -33558029 -544314437 -537044483 -1048641 -2053
            -1363150973 -708447748 -536870977</internalNodes>
          <leafValues>
            -3.0221733450889587e-01 4.8022410273551941e-01</leafValues></_>
        <_>
          <internalNodes>
            0 -1 10 -72356885 -219417622 -1097899 1935407078 -806886517
            -899186719 1267716031 1440216533</internalNodes>
          <leafValues>
            -3.1140527129173279e-01 3.5613003373146057e-01</leafValues></_>
        <_>
          <internalNodes>
            0 -1 45 -488376082 -21267097 -162524433 1916988046
            -549043380 1265596193 -8388614 -11559473</internalNodes>
          <leafValues>
            -3.1880766153335571e-01 3.1897270679473877e-01</leafValues></_>
        <_>
          <internalNodes>
            0 -1 206 -92276402 -1017644215 -2063610242 1350365951
            -621947390 1246686759 -6368257 1651502331</internalNodes>
          <leafValues>
            -3.9221522212028503e-01 2.4927662312984467e-01</leafValues></_>
        <_>
          <internalNodes>
            0 -1 128 -1196158127 511588955 1041924095 1027046399
            -17033928 -1086836976 1066076668 2133990459</internalNodes>
          <leafValues>
            -4.0690362453460693e-01 2.5512227416038513e-01</leafValues></_>
        <_>
          <internalNodes>
            0 -1 152 -2129465992 -81131352 -278986819 -1510837232
            -1515209483 -1270104584 518245881 -1615967112</internalNodes>
          <leafValues>
            -3.7709277868270874e-01 2.4235601723194122e-01</leafValues></_>
        <_>
          <internalNodes>
            0 -1 101 1060738032 -1364262920 2102474101 -537600017
            256809447 -1383154197 1569952217 -543302416</internalNodes>
          <leafValues>
            -3.2595714926719666e-01 2.7529183030128479e-01</leafValues></_>
        <_>
          <internalNodes>
            0 -1 89 -678431802 361430894 -1501382610 -1312624984
            1475342807 877270881 -1511784630 2139520751</internalNodes>
          <leafValues>
            -3.9235922694206238e-01 2.4547249078750610e-01</leafValues></_>
        <_>
          <internalNodes>
            0 -1 56 -1707567792 -164164108 -1093157921 -1185743116
            802807224 -15738451 -1354968103 331241584</internalNodes>
          <leafValues>
            -4.8352792859077454e-01 1.9801318645477295e-01</leafValues></_>
        <_>
          <internalNodes>
            0 -1 121 506739637 2067372955 452008575 2031205343
            -1082159425 -1133215879 -1442996568 -75630914</internalNodes>
          <leafValues>
            -2.8290021419525146e-01 3.3213585615158081e-01</leafValues></_>
        <_>
          <internalNodes>
            0 -1 94 -144708958 1881600774 -221367704 10512926 1952319436
            89036381 -798161173 1938814895</internalNodes>
          <leafValues>
            -4.4641429185867310e-01 2.0755213499069214e-01</leafValues></_>
        <_>
          <internalNodes>
            0 -1 205 2146045954 -1075318489 -1146662083 1594604099
            248862137 263616483 234999017 1112718082</internalNodes>
          <leafValues>
            -4.5168176293373108e-01 2.1009846031665802e-01</leafValues></_></weakClassifiers></_>
    <!-- stage 16 -->
    <_>
      <maxWeakCount>15</maxWeakCount>
      <stageThreshold>-1.7780040502548218e+00</stageThreshold>
      <weakClassifiers>
        <_>
          <internalNodes>
            0 -1 83 -536873985 -4161 1438602745 -37748737 -1644167681
            -1895890951 -33687045 -570426373</internalNodes>
          <leafValues>
            -5.7312035560607910e-01 3.1170663237571716e-01</leafValues></_>
        <_>
          <internalNodes>
            0 -1 221 -68420613 -1895910930 -172789261 -539164681
            -37816577 -1896022530 2011690739 1606418426</internalNodes>
          <leafValues>
            -3.8616394996643066e-01 2.9944267868995667e-01</leafValues></_>
        <_>
          <internalNodes>
            0 -1 22 -553682947 2080323421 1051246591 1024813055
            -269210924 532316156 -1355091970 -1</internalNodes>
          <leafValues>
            -2.7871650457382202e-01 3.7838137149810791e-01</leafValues></_>
        <_>
          <internalNodes>
            0 -1 193 -620765569 2069884533 1851758557 1902116863
            -16777720 -109855140 -419433032 -92536833</internalNodes>
          <leafValues>
            -2.3705719411373138e-01 4.1915732622146606e-01</leafValues></_>
        <_>
          <internalNodes>
            0 -1 132 -368931086 -1724748321 -1640854401 1059070192
            115081457 -539673165 -35681025 -77236485</internalNodes>
          <leafValues>
            -3.1176993250846863e-01 2.9929319024085999e-01</leafValues></_>
        <_>
          <internalNodes>
            0 -1 112 -92584358 -81834927 1108367611 1376152046
            -628488510 1900234252 -259981313 -765724225</internalNodes>
          <leafValues>
            -2.5956106185913086e-01 3.5405534505844116e-01</leafValues></_>
        <_>
          <internalNodes>
            0 -1 37 -425020694 2147282363 -444651565 938899296
            -1007800338 -272962050 265753871 -813742221</internalNodes>
          <leafValues>
            -3.0351835489273071e-01 3.0522152781486511e-01</leafValues></_>
        <_>
          <internalNodes>
            0 -1 149 -1960005699 -2005651971 -1096893443 799816672
            -1358986755 -1241580553 -50459394 -1145149716</internalNodes>
          <leafValues>
            -3.1572860479354858e-01 2.9370218515396118e-01</leafValues></_>
        <_>
          <internalNodes>
            0 -1 180 -1120221870 1060792724 2141913023 1451056573
            -1415004229 -1159774362 1060739581 1609030908</internalNodes>
          <leafValues>
            -4.0774077177047729e-01 2.2963464260101318e-01</leafValues></_>
        <_>
          <internalNodes>
            0 -1 20 -340265017 -356009117 -822252818 -219484946
            -805472436 1111981903 -33622221 -67109933</internalNodes>
          <leafValues>
            -2.8785604238510132e-01 3.3317133784294128e-01</leafValues></_>
        <_>
          <internalNodes>
            0 -1 96 -608701453 -40194070 322900467 -7503873 -1386217991
            -1897103362 1138016699 -541069617</internalNodes>
          <leafValues>
            -1.9079966843128204e-01 5.0385075807571411e-01</leafValues></_>
        <_>
          <internalNodes>
            0 -1 144 1014226116 1124320516 -1718694593 896822833
            2024183024 -1080313374 582647414 706865887</internalNodes>
          <leafValues>
            -4.1847431659698486e-01 2.2364351153373718e-01</leafValues></_>
        <_>
          <internalNodes>
            0 -1 134 -437248514 -537059719 -281870337 2014018789
            -17288520 -536985636 -273121281 -281108530</internalNodes>
          <leafValues>
            -2.8090608119964600e-01 3.4987285733222961e-01</leafValues></_>
        <_>
          <internalNodes>
            0 -1 106 -809769022 -143736978 -723995028 -1864306190
            1366782465 1198550870 1977578650 -1486357521</internalNodes>
          <leafValues>
            -3.6993280053138733e-01 2.5883892178535461e-01</leafValues></_>
        <_>
          <internalNodes>
            0 -1 119 1032851313 -1617609263 485390839 2108898020
            -1149817800 -1074971841 -48613448 -1883624016</internalNodes>
          <leafValues>
            -3.6022520065307617e-01 2.6811084151268005e-01</leafValues></_></weakClassifiers></_>
    <!-- stage 17 -->
    <_>
      <maxWeakCount>15</maxWeakCount>
      <stageThreshold>-1.4596977233886719e+00</stageThreshold>
      <weakClassifiers>
        <_>
          <internalNodes>
            0 -1 153 -3077 -1851393 -571220483 -536871937 -1073758209
            -1346438213 -570560001 -570425345</internalNodes>
          <leafValues>
            -5.7882821559906006e-01 2.2924411296844482e-01</leafValues></_>
        <_>
          <internalNodes>
            0 -1 215 -29 -1353711665 -369133661 -335677441 -140511387
            1198454135 -134220891 -672137521</internalNodes>
          <leafValues>
            -3.5407817363739014e-01 3.2178115844726562e-01</leafValues></_>
        <_>
          <internalNodes>
            0 -1 29 -68158737 -8393217 1918892767 1903687294 -10494067
            -279085307 -16801827 1970798335</internalNodes>
          <leafValues>
            -2.9391366243362427e-01 3.7955999374389648e-01</leafValues></_>
        <_>
          <internalNodes>
            0 -1 9 -282074271 -823224338 -1308754192 -1130820 -684722271
            1339996117 1941434801 2142221554</internalNodes>
          <leafValues>
            -3.5232836008071899e-01 2.6704466342926025e-01</leafValues></_>
        <_>
          <internalNodes>
            0 -1 53 1312503349 -8966273 774930163 989921022 -35700959
            -93356752 1073631161 2116058302</internalNodes>
          <leafValues>
            -4.1814264655113220e-01 2.1522939205169678e-01</leafValues></_>
        <_>
          <internalNodes>
            0 -1 16 -353654036 1516796642 -872542450 2075159278
            1291263708 539645564 -2059675298 1431303620</internalNodes>
          <leafValues>
            -4.5753699541091919e-01 2.0235532522201538e-01</leafValues></_>
        <_>
          <internalNodes>
            0 -1 200 947799199 1555951439 -805585173 2133131099
            -1661336591 -1125128385 -360849764 -1207240518</internalNodes>
          <leafValues>
            -2.6922214031219482e-01 3.4909591078758240e-01</leafValues></_>
        <_>
          <internalNodes>
            0 -1 99 1244628599 -1755386378 -268787467 -1892242244
            266100415 -1895897779 -1619837698 -806908257</internalNodes>
          <leafValues>
            -2.5841096043586731e-01 3.5393926501274109e-01</leafValues></_>
        <_>
          <internalNodes>
            0 -1 179 1676476394 -842269393 1742951331 -68632890
            -1207982613 -1970340020 -144313957 1203633834</internalNodes>
          <leafValues>
            -3.4368097782135010e-01 2.7500706911087036e-01</leafValues></_>
        <_>
          <internalNodes>
            0 -1 70 782286768 -755763278 -306221091 -1881327916
            -1422158083 -69878026 161850205 1269583888</internalNodes>
          <leafValues>
            -4.0482607483863831e-01 2.1973605453968048e-01</leafValues></_>
        <_>
          <internalNodes>
            0 -1 125 -345494806 2007281548 -1191671062 990915246
            798404588 789842380 -1290339334 719784678</internalNodes>
          <leafValues>
            -4.4100114703178406e-01 2.0657616853713989e-01</leafValues></_>
        <_>
          <internalNodes>
            0 -1 203 -890003637 1140317170 -757137794 1885994170
            -1237322174 508329542 -469829894 -759436641</internalNodes>
          <leafValues>
            -2.9343536496162415e-01 3.1320941448211670e-01</leafValues></_>
        <_>
          <internalNodes>
            0 -1 28 1848642194 -1088805411 732097518 -80726278
            -1973452178 -538100723 -842076423 2122058280</internalNodes>
          <leafValues>
            -4.5296522974967957e-01 2.1160745620727539e-01</leafValues></_>
        <_>
          <internalNodes>
            0 -1 169 -1880174797 -1367429142 1610044813 217938172
            266313201 -1964057270 1439527290 1437192419</internalNodes>
          <leafValues>
            -4.0203171968460083e-01 2.2488157451152802e-01</leafValues></_>
        <_>
          <internalNodes>
            0 -1 97 606604796 -1880877572 670859263 483744216
            -1368224265 -1146204483 775544808 502548936</internalNodes>
          <leafValues>
            -6.1487388610839844e-01 1.5350405871868134e-01</leafValues></_></weakClassifiers></_>
    <!-- stage 18 -->
    <_>
      <maxWeakCount>15</maxWeakCount>
      <stageThreshold>-1.3210033178329468e+00</stageThreshold>
      <weakClassifiers>
        <_>
          <internalNodes>
            0 -1 164 -541073921 -5400328 -1048609 -33 -1077944321
            -1078722625 502128127 -769</internalNodes>
          <leafValues>
            -5.6609314680099487e-01 2.1358589828014374e-01</leafValues></_>
        <_>
          <internalNodes>
            0 -1 25 -8194 -84200195 1060149246 2064711486 1946109692
            2062491005 -42208257 2139090943</internalNodes>
          <leafValues>
            -4.0111467242240906e-01 2.5623074173927307e-01</leafValues></_>
        <_>
          <internalNodes>
            0 -1 170 -646259457 -629410433 -4194337 -16065666 -125864483
            -270805579 -166470 -81076518</internalNodes>
          <leafValues>
            -2.5074747204780579e-01 3.9727279543876648e-01</leafValues></_>
        <_>
          <internalNodes>
            0 -1 122 -747136769 1597455987 808631999 1597221279
            -1149780299 -311091436 -42131463 -9177377</internalNodes>
          <leafValues>
            -2.1866147220134735e-01 4.1654837131500244e-01</leafValues></_>
        <_>
          <internalNodes>
            0 -1 38 -676604933 -13116045 -32771 -1078247712 -1363741261
            -72622275 267378671 -543176195</internalNodes>
          <leafValues>
            -2.1952705085277557e-01 4.3610778450965881e-01</leafValues></_>
        <_>
          <internalNodes>
            0 -1 44 -562405762 -591769926 -705081857 1597005566
            -805414670 -889826818 -276367394 -566240002</internalNodes>
          <leafValues>
            -3.2749482989311218e-01 2.7867093682289124e-01</leafValues></_>
        <_>
          <internalNodes>
            0 -1 213 -1090522142 -1222447446 252597450 -806551570
            -1224743453 -1758795918 503288296 -166726017</internalNodes>
          <leafValues>
            -2.7882152795791626e-01 3.1890517473220825e-01</leafValues></_>
        <_>
          <internalNodes>
            0 -1 102 305692155 -1611732756 -806003411 -547668547
            1002102699 -1343443208 526185917 -539011587</internalNodes>
          <leafValues>
            -2.7182441949844360e-01 3.2303473353385925e-01</leafValues></_>
        <_>
          <internalNodes>
            0 -1 124 -566242064 -741544058 851374960 -72483878
            -1090611288 97181000 1416941972 -135274057</internalNodes>
          <leafValues>
            -2.5739127397537231e-01 3.4375920891761780e-01</leafValues></_>
        <_>
          <internalNodes>
            0 -1 107 1883684590 860353398 1009427312 -1747997078
            1493005780 1360098292 -370802236 1994331771</internalNodes>
          <leafValues>
            -4.3516290187835693e-01 1.9443422555923462e-01</leafValues></_>
        <_>
          <internalNodes>
            0 -1 67 -867001196 -596105880 1732015583 1597013661
            973013728 -8775476 -1079354896 1259887120</internalNodes>
          <leafValues>
            -4.5417636632919312e-01 2.0037685334682465e-01</leafValues></_>
        <_>
          <internalNodes>
            0 -1 174 1247547997 -50380227 251055487 1601863150
            -1997062724 -268943489 -592388968 -80019810</internalNodes>
          <leafValues>
            -2.9698774218559265e-01 3.1815069913864136e-01</leafValues></_>
        <_>
          <internalNodes>
            0 -1 35 1269478329 -606407180 -76564674 -604079660 698399483
            -547873 -1349060803 -1758804880</internalNodes>
          <leafValues>
            -3.1469461321830750e-01 2.8602153062820435e-01</leafValues></_>
        <_>
          <internalNodes>
            0 -1 138 168611801 1434460383 -1344464774 288895829
            -1646478337 240655124 -1900333830 1072499131</internalNodes>
          <leafValues>
            -4.0134492516517639e-01 2.1114607155323029e-01</leafValues></_>
        <_>
          <internalNodes>
            0 -1 139 -1180744364 1581895469 150929032 823635454 -2229836
            -121655938 -84035432 -1465295169</internalNodes>
          <leafValues>
            -2.9611876606941223e-01 3.0318921804428101e-01</leafValues></_></weakClassifiers></_>
    <!-- stage 19 -->
    <_>
      <maxWeakCount>15</maxWeakCount>
      <stageThreshold>-1.4474370479583740e+00</stageThreshold>
      <weakClassifiers>
        <_>
          <internalNodes>
            0 -1 202 -11553 -69208505 -73664001 -11541681 -102761217
            -1071617 -4194305 -79954081</internalNodes>
          <leafValues>
            -5.7500356435775757e-01 1.7842324078083038e-01</leafValues></_>
        <_>
          <internalNodes>
            0 -1 31 -228068817 -168297537 -1338268929 -235540273
            -545783827 -41992635 -39323139 1648880351</internalNodes>
          <leafValues>
            -3.5013213753700256e-01 3.0194351077079773e-01</leafValues></_>
        <_>
          <internalNodes>
            0 -1 123 -97256705 -738231363 -1166894081 -550246669
            1870074877 -9215145 -822609921 -13537733</internalNodes>
          <leafValues>
            -2.2960993647575378e-01 4.3722698092460632e-01</leafValues></_>
        <_>
          <internalNodes>
            0 -1 86 2066395537 791395730 530553141 795869170 -222499211
            -1900338187 1439125624 -1894780416</internalNodes>
          <leafValues>
            -3.1698825955390930e-01 2.8084507584571838e-01</leafValues></_>
        <_>
          <internalNodes>
            0 -1 163 1062638032 774015522 -874518794 -4272134
            -1079773703 -1086672902 232640732 -1883641232</internalNodes>
          <leafValues>
            -4.1104733943939209e-01 2.1757635474205017e-01</leafValues></_>
        <_>
          <internalNodes>
            0 -1 5 1265811195 -71681033 -1083189325 1529951057
            -456757266 2130630574 -889263617 -805372517</internalNodes>
          <leafValues>
            -2.4931949377059937e-01 3.6581093072891235e-01</leafValues></_>
        <_>
          <internalNodes>
            0 -1 104 -687878946 -205584309 -95551403 320166490
            -639698786 -1160838650 -501622033 -130298625</internalNodes>
          <leafValues>
            -2.0789209008216858e-01 4.0134617686271667e-01</leafValues></_>
        <_>
          <internalNodes>
            0 -1 113 683425045 996023222 803872735 -1077444616 796594173
            -1145169922 1073502156 -1359471596</internalNodes>
          <leafValues>
            -3.6857783794403076e-01 2.5083789229393005e-01</leafValues></_>
        <_>
          <internalNodes>
            0 -1 159 1220435037 -65110214 -1275415074 -318219398
            -64075327 2111535615 -55010696 -1472706546</internalNodes>
          <leafValues>
            -3.7266418337821960e-01 2.2539891302585602e-01</leafValues></_>
        <_>
          <internalNodes>
            0 -1 105 -152075749 -203219903 1424948442 1933275506
            -147328382 -56669428 -631852838 -94635522</internalNodes>
          <leafValues>
            -2.0852655172348022e-01 4.1102230548858643e-01</leafValues></_>
        <_>
          <internalNodes>
            0 -1 117 -214448190 1087579181 -95577651 -69297362
            -144686187 834680521 1918182460 1412690787</internalNodes>
          <leafValues>
            -3.4452083706855774e-01 2.4194957315921783e-01</leafValues></_>
        <_>
          <internalNodes>
            0 -1 166 -1204801040 138325884 1066268671 2129874892
            789197684 -1283569222 791817713 254350844</internalNodes>
          <leafValues>
            -5.9452760219573975e-01 1.4669439196586609e-01</leafValues></_>
        <_>
          <internalNodes>
            0 -1 136 -900803877 1942775551 -671942664 1934682747
            -546091333 -1921106099 -1092759557 -838349161</internalNodes>
          <leafValues>
            -2.3802301287651062e-01 3.6706551909446716e-01</leafValues></_>
        <_>
          <internalNodes>
            0 -1 114 589802430 -1249039810 787902316 -1431655506
            2002591485 509441988 -410030386 2046785147</internalNodes>
          <leafValues>
            -3.5677421092987061e-01 2.4561043083667755e-01</leafValues></_>
        <_>
          <internalNodes>
            0 -1 48 -109118780 -363521285 -266964273 1886498550
            -1076656632 -548314048 2040100509 1868553146</internalNodes>
          <leafValues>
            -3.8568237423896790e-01 2.3294441401958466e-01</leafValues></_></weakClassifiers></_></stages>
  <features>
    <_>
      <rect>
        0 6 2 3</rect></_>
    <_>
      <rect>
        0 6 2 4</rect></_>
    <_>
      <rect>
        0 7 2 3</rect></_>
    <_>
      <rect>
        0 8 1 3</rect></_>
    <_>
      <rect>
        0 8 2 3</rect></_>
    <_>
      <rect>
        0 8 2 4</rect></_>
    <_>
      <rect>
        0 9 2 3</rect></_>
    <_>
      <rect>
        0 10 1 2</rect></_>
    <_>
      <rect>
        0 10 1 3</rect></_>
    <_>
      <rect>
        0 10 2 1</rect></_>
    <_>
      <rect>
        0 11 1 2</rect></_>
    <_>
      <rect>
        0 12 1 2</rect></_>
    <_>
      <rect>
        0 12 2 1</rect></_>
    <_>
      <rect>
        0 13 1 1</rect></_>
    <_>
      <rect>
        0 13 16 3</rect></_>
    <_>
      <rect>
        0 14 1 1</rect></_>
    <_>
      <rect>
        0 14 1 2</rect></_>
    <_>
      <rect>
        0 15 1 1</rect></_>
    <_>
      <rect>
        0 15 1 2</rect></_>
    <_>
      <rect>
        0 15 2 3</rect></_>
    <_>
      <rect>
        0 16 1 1</rect></_>
    <_>
      <rect>
        0 16 1 2</rect></_>
    <_>
      <rect>
        0 16 1 3</rect></_>
    <_>
      <rect>
        0 16 2 3</rect></_>
    <_>
      <rect>
        0 17 1 1</rect></_>
    <_>
      <rect>
        0 17 1 2</rect></_>
    <_>
      <rect>
        0 18 1 1</rect></_>
    <_>
      <rect>
        0 19 1 1</rect></_>
    <_>
      <rect>
        0 19 3 2</rect></_>
    <_>
      <rect>
        0 20 2 1</rect></_>
    <_>
      <rect>
        0 21 2 1</rect></_>
    <_>
      <rect>
        0 21 3 1</rect></_>
    <_>
      <rect>
        0 22 2 1</rect></_>
    <_>
      <rect>
        0 22 3 1</rect></_>
    <_>
      <rect>
        0 22 4 1</rect></_>
    <_>
      <rect>
        1 8 1 2</rect></_>
    <_>
      <rect>
        1 8 2 2</rect></_>
    <_>
      <rect>
        1 8 4 2</rect></_>
    <_>
      <rect>
        1 9 1 2</rect></_>
    <_>
      <rect>
        1 9 2 2</rect></_>
    <_>
      <rect>
        1 10 1 2</rect></_>
    <_>
      <rect>
        1 10 2 1</rect></_>
    <_>
      <rect>
        1 11 1 1</rect></_>
    <_>
      <rect>
        1 12 1 1</rect></_>
    <_>
      <rect>
        1 17 1 2</rect></_>
    <_>
      <rect>
        1 18 1 1</rect></_>
    <_>
      <rect>
        1 18 1 2</rect></_>
    <_>
      <rect>
        1 18 2 2</rect></_>
    <_>
      <rect>
        1 19 1 1</rect></_>
    <_>
      <rect>
        1 19 1 2</rect></_>
    <_>
      <rect>
        1 20 1 1</rect></_>
    <_>
      <rect>
        1 21 1 1</rect></_>
    <_>
      <rect>
        1 21 2 1</rect></_>
    <_>
      <rect>
        1 22 2 1</rect></_>
    <_>
      <rect>
        1 22 3 1</rect></_>
    <_>
      <rect>
        2 3 16 7</rect></_>
    <_>
      <rect>
        2 9 1 2</rect></_>
    <_>
      <rect>
        2 10 1 1</rect></_>
    <_>
      <rect>
        2 20 1 1</rect></_>
    <_>
      <rect>
        2 21 1 1</rect></_>
    <_>
      <rect>
        2 21 2 1</rect></_>
    <_>
      <rect>
        2 21 3 1</rect></_>
    <_>
      <rect>
        2 22 1 1</rect></_>
    <_>
      <rect>
        2 22 2 1</rect></_>
    <_>
      <rect>
        2 22 4 1</rect></_>
    <_>
      <rect>
        3 21 1 1</rect></_>
    <_>
      <rect>
        3 22 1 1</rect></_>
    <_>
      <rect>
        3 22 2 1</rect></_>
    <_>
      <rect>
        3 22 3 1</rect></_>
    <_>
      <rect>
        4 8 1 1</rect></_>
    <_>
      <rect>
        4 8 2 1</rect></_>
    <_>
      <rect>
        4 10 1 1</rect></_>
    <_>
      <rect>
        4 22 1 1</rect></_>
    <_>
      <rect>
        5 22 1 1</rect></_>
    <_>
      <rect>
        6 9 14 5</rect></_>
    <_>
      <rect>
        6 22 1 1</rect></_>
    <_>
      <rect>
        6 22 2 1</rect></_>
    <_>
      <rect>
        7 19 7 2</rect></_>
    <_>
      <rect>
        7 22 2 1</rect></_>
    <_>
      <rect>
        8 22 3 1</rect></_>
    <_>
      <rect>
        8 22 4 1</rect></_>
    <_>
      <rect>
        8 22 6 1</rect></_>
    <_>
      <rect>
        9 0 10 6</rect></_>
    <_>
      <rect>
        9 22 4 1</rect></_>
    <_>
      <rect>
        10 22 1 1</rect></_>
    <_>
      <rect>
        11 6 7 3</rect></_>
    <_>
      <rect>
        11 21 2 1</rect></_>
    <_>
      <rect>
        11 22 3 1</rect></_>
    <_>
      <rect>
        12 5 9 4</rect></_>
    <_>
      <rect>
        12 6 9 2</rect></_>
    <_>
      <rect>
        12 21 2 1</rect></_>
    <_>
      <rect>
        12 22 1 1</rect></_>
    <_>
      <rect>
        13 0 8 4</rect></_>
    <_>
      <rect>
        13 7 7 3</rect></_>
    <_>
      <rect>
        13 10 3 1</rect></_>
    <_>
      <rect>
        13 21 1 1</rect></_>
    <_>
      <rect>
        13 21 2 1</rect></_>
    <_>
      <rect>
        13 22 1 1</rect></_>
    <_>
      <rect>
        13 22 2 1</rect></_>
    <_>
      <rect>
        13 22 4 1</rect></_>
    <_>
      <rect>
        15 11 2 2</rect></_>
    <_>
      <rect>
        15 20 1 1</rect></_>
    <_>
      <rect>
        15 21 1 1</rect></_>
    <_>
      <rect>
        15 22 1 1</rect></_>
    <_>
      <rect>
        16 9 1 1</rect></_>
    <_>
      <rect>
        16 11 1 1</rect></_>
    <_>
      <rect>
        16 13 2 1</rect></_>
    <_>
      <rect>
        17 7 7 2</rect></_>
    <_>
      <rect>
        17 9 5 3</rect></_>
    <_>
      <rect>
        17 10 1 1</rect></_>
    <_>
      <rect>
        17 22 2 1</rect></_>
    <_>
      <rect>
        18 9 1 1</rect></_>
    <_>
      <rect>
        18 11 1 1</rect></_>
    <_>
      <rect>
        19 22 2 1</rect></_>
    <_>
      <rect>
        20 16 5 2</rect></_>
    <_>
      <rect>
        21 19 2 2</rect></_>
    <_>
      <rect>
        22 16 8 3</rect></_>
    <_>
      <rect>
        24 0 6 3</rect></_>
    <_>
      <rect>
        24 22 6 1</rect></_>
    <_>
      <rect>
        25 22 2 1</rect></_>
    <_>
      <rect>
        27 10 3 1</rect></_>
    <_>
      <rect>
        27 19 4 2</rect></_>
    <_>
      <rect>
        28 22 4 1</rect></_>
    <_>
      <rect>
        28 22 5 1</rect></_>
    <_>
      <rect>
        29 12 1 1</rect></_>
    <_>
      <rect>
        29 12 4 3</rect></_>
    <_>
      <rect>
        29 22 4 1</rect></_>
    <_>
      <rect>
        30 11 1 1</rect></_>
    <_>
      <rect>
        30 22 2 1</rect></_>
    <_>
      <rect>
        30 22 3 1</rect></_>
    <_>
      <rect>
        31 19 3 2</rect></_>
    <_>
      <rect>
        31 21 2 1</rect></_>
    <_>
      <rect>
        31 22 4 1</rect></_>
    <_>
      <rect>
        32 20 1 1</rect></_>
    <_>
      <rect>
        32 21 1 1</rect></_>
    <_>
      <rect>
        32 21 2 1</rect></_>
    <_>
      <rect>
        32 21 3 1</rect></_>
    <_>
      <rect>
        34 22 1 1</rect></_>
    <_>
      <rect>
        35 15 3 3</rect></_>
    <_>
      <rect>
        37 8 4 1</rect></_>
    <_>
      <rect>
        37 9 4 3</rect></_>
    <_>
      <rect>
        37 22 1 1</rect></_>
    <_>
      <rect>
        37 22 2 1</rect></_>
    <_>
      <rect>
        38 7 2 2</rect></_>
    <_>
      <rect>
        38 7 4 3</rect></_>
    <_>
      <rect>
        38 22 1 1</rect></_>
    <_>
      <rect>
        38 22 2 1</rect></_>
    <_>
      <rect>
        38 22 4 1</rect></_>
    <_>
      <rect>
        39 15 2 2</rect></_>
    <_>
      <rect>
        39 16 2 2</rect></_>
    <_>
      <rect>
        39 22 2 1</rect></_>
    <_>
      <rect>
        40 8 3 2</rect></_>
    <_>
      <rect>
        40 22 2 1</rect></_>
    <_>
      <rect>
        40 22 3 1</rect></_>
    <_>
      <rect>
        41 21 2 1</rect></_>
    <_>
      <rect>
        41 22 2 1</rect></_>
    <_>
      <rect>
        41 22 3 1</rect></_>
    <_>
      <rect>
        42 7 2 2</rect></_>
    <_>
      <rect>
        42 21 2 1</rect></_>
    <_>
      <rect>
        43 5 2 2</rect></_>
    <_>
      <rect>
        43 8 2 2</rect></_>
    <_>
      <rect>
        43 9 1 1</rect></_>
    <_>
      <rect>
        43 10 2 1</rect></_>
    <_>
      <rect>
        43 18 2 2</rect></_>
    <_>
      <rect>
        43 19 2 2</rect></_>
    <_>
      <rect>
        43 20 2 1</rect></_>
    <_>
      <rect>
        43 21 1 1</rect></_>
    <_>
      <rect>
        43 21 2 1</rect></_>
    <_>
      <rect>
        43 22 1 1</rect></_>
    <_>
      <rect>
        43 22 2 1</rect></_>
    <_>
      <rect>
        44 5 2 3</rect></_>
    <_>
      <rect>
        44 7 2 3</rect></_>
    <_>
      <rect>
        44 7 2 4</rect></_>
    <_>
      <rect>
        44 8 2 3</rect></_>
    <_>
      <rect>
        44 10 1 1</rect></_>
    <_>
      <rect>
        44 10 2 3</rect></_>
    <_>
      <rect>
        44 15 2 1</rect></_>
    <_>
      <rect>
        44 15 2 3</rect></_>
    <_>
      <rect>
        44 16 2 3</rect></_>
    <_>
      <rect>
        44 20 2 1</rect></_>
    <_>
      <rect>
        44 21 1 1</rect></_>
    <_>
      <rect>
        44 21 2 1</rect></_>
    <_>
      <rect>
        44 22 1 1</rect></_>
    <_>
      <rect>
        45 9 1 1</rect></_>
    <_>
      <rect>
        45 10 1 1</rect></_>
    <_>
      <rect>
        45 11 1 1</rect></_>
    <_>
      <rect>
        45 20 1 1</rect></_>
    <_>
      <rect>
        45 21 1 1</rect></_>
    <_>
      <rect>
        45 22 1 1</rect></_>
    <_>
      <rect>
        46 8 1 2</rect></_>
    <_>
      <rect>
        46 10 1 2</rect></_>
    <_>
      <rect>
        46 11 1 1</rect></_>
    <_>
      <rect>
        46 11 1 2</rect></_>
    <_>
      <rect>
        46 12 1 1</rect></_>
    <_>
      <rect>
        46 16 1 2</rect></_>
    <_>
      <rect>
        46 17 1 2</rect></_>
    <_>
      <rect>
        46 18 1 2</rect></_>
    <_>
      <rect>
        46 19 1 1</rect></_>
    <_>
      <rect>
        46 20 1 1</rect></_>
    <_>
      <rect>
        47 6 1 4</rect></_>
    <_>
      <rect>
        47 8 1 2</rect></_>
    <_>
      <rect>
        47 8 1 3</rect></_>
    <_>
      <rect>
        47 9 1 3</rect></_>
    <_>
      <rect>
        47 11 1 1</rect></_>
    <_>
      <rect>
        47 11 1 2</rect></_>
    <_>
      <rect>
        47 11 1 3</rect></_>
    <_>
      <rect>
        47 12 1 1</rect></_>
    <_>
      <rect>
        47 12 1 2</rect></_>
    <_>
      <rect>
        47 13 1 1</rect></_>
    <_>
      <rect>
        47 13 1 2</rect></_>
    <_>
      <rect>
        47 14 1 1</rect></_>
    <_>
      <rect>
        47 14 1 2</rect></_>
    <_>
      <rect>
        47 15 1 1</rect></_>
    <_>
      <rect>
        47 15 1 2</rect></_>
    <_>
      <rect>
        47 15 1 3</rect></_>
    <_>
      <rect>
        47 16 1 1</rect></_>
    <_>
      <rect>
        47 16 1 2</rect></_>
    <_>
      <rect>
        47 16 1 3</rect></_>
    <_>
      <rect>
        47 17 1 1</rect></_>
    <_>
      <rect>
        47 18 1 1</rect></_>
    <_>
      <rect>
        47 18 1 2</rect></_>
    <_>
      <rect>
        47 19 1 1</rect></_>
    <_>
      <rect>
        47 19 1 2</rect></_></features></cascade>
</opencv_storage>
